tree
version=v4
num_class=1
num_tree_per_iteration=1
label_index=0
max_feature_idx=29
objective=binary sigmoid:1
feature_names=Time V1 V2 V3 V4 V5 V6 V7 V8 V9 V10 V11 V12 V13 V14 V15 V16 V17 V18 V19 V20 V21 V22 V23 V24 V25 V26 V27 V28 Amount_log
feature_infos=[-1.9965830234571931:1.6420577336572635] [-56.407509631328999:2.45188848995359] [-72.715727562930297:22.057728990490901] [-33.680984018352497:9.3825584328211402] [-5.6006071412151002:16.8753440335975] [-42.1478983728015:34.801665876668601] [-26.1605059358433:22.5292984665587] [-43.5572415712451:36.677267945403102] [-73.216718455267397:19.587772623440401] [-13.4340663182301:15.5949946071278] [-24.588262437247501:23.7451361206545] [-4.7974734647975703:12.018913181619901] [-18.683714633344302:7.8483920756446004] [-5.7918812063208396:4.5690089585660596] [-19.214325490261398:10.526766051784699] [-4.3913070678049397:5.7845138896294603] [-14.129854517493101:7.05913181057395] [-25.162799369324802:9.2535262504728504] [-9.4987459210467708:5.0410691854118399] [-7.2135274301775896:5.5721133268796903] [-25.222345240529702:39.420904248219898] [-34.8303821448146:27.202839157315399] [-10.933143697655:10.503090089945401] [-44.807735203791303:22.528411689774899] [-2.8366269187034101:4.0163418166926803] [-10.2953970749851:6.0708503840779802] [-2.60455055280817:3.5173456116238002] [-22.565679320782699:12.1524011068287] [-11.7108956394515:33.847807818883098] [-1.9027535471038943:4.0648574330567566]
tree_sizes=3368

Tree=0
num_leaves=31
num_cat=0
split_feature=14 10 17 7 26 0 4 7 4 17 12 11 23 25 28 4 17 1 28 19 0 14 21 10 0 29 22 3 26 0
split_gain=62348 81587.8 3902.1 2568.9 2398.48 5027.12 607.545 1026.93 528.405 487.446 5299.01 926.862 249.033 249.027 70.8114 24.1928 122.196 286.267 958.187 106.011 90.3945 33.5345 211.291 27.6714 19.6211 19.4719 12.2048 15.7988 13.6162 14.4822
threshold=-3.6090809040465497 -2.2174805328971545 2.1762507566196958 -0.62713392595372142 -0.26103418828691344 -1.1166671514468791 1.8995097433233152 1.0873578755073601 1.7266595107587652 -1.6034152409267348 -2.1841238579818998 1.8950992678671852 -0.076993314138282837 1.0615278496807401 0.62502767223793609 2.4494260484475454 1.459949600125775 0.80353289498881664 0.042038661008314708 1.5932260787923402 1.0451182407276025 -2.1811447414791245 0.012475959350246701 -1.6762971166007548 0.55257340468827676 2.0829103442436536 1.7891013540740801 -1.3036338845112196 1.4047954437339403 1.0745361601780914
decision_type=2 2 2 2 2 2 2 2 2 2 2 2 2 2 2 2 2 2 2 2 2 2 2 2 2 2 2 2 2 2
left_child=1 2 4 -3 5 -1 -5 -8 -6 10 11 -2 -7 14 -10 -11 21 19 20 23 -19 22 -17 -18 -9 -12 28 -28 -23 -30
right_child=9 3 -4 6 8 12 7 24 13 15 25 -13 -14 -15 -16 16 17 18 -20 -21 -22 26 -24 -25 -26 -27 27 -29 29 -31
leaf_value=-1.3711343786254302 2.2809019098175325 8.0737870570029528 2.807527832288959 -6.4084258109605976 15.31489349098473 17.383781043551146 2.3686728968961992 -4.9602045241642418 22.555999924967239 -6.4035634245020328 -6.4084258109605976 13.866672204188372 22.555999924966699 18.418224819834265 20.487112372400503 -6.4084258109605967 -4.9602045241642418 -6.4084258109605976 3.2463827676817827 -3.5119832373678865 -3.5119832373678865 -6.3876980709223634 -2.2706507058281487 -6.4084258109605976 -6.4084258109605976 -5.3739820346774776 -6.4084258109605967 -4.960204524164201 -4.960204524164201 -6.4084258109605967
leaf_weight=0.039703876944258809 0.034525110386312008 0.034525110386312008 0.037977621424943209 0.76473119505680986 0.034525110386312008 0.048335154540836811 0.056966432137414813 0.034525110386312008 0.28655841620638967 370.18859109515324 0.77336247265338798 0.034525110386312008 0.04488264350220561 0.048335154540836811 0.048335154540836811 0.20715066231787815 0.034525110386312008 0.12256414187140763 0.036251365905627608 0.034525110386312008 0.034525110386312008 19.297810450429104 0.036251365905627608 0.73883736226707586 0.072502731811255217 0.048335154540836811 0.041430132463574409 0.034525110386311009 0.034525110386311009 0.034525110386312008
leaf_count=23 20 20 22 443 20 28 33 20 166 214446 448 20 26 28 28 120 20 71 21 20 20 11179 21 428 42 28 24 20 20 20
internal_value=-6.35834 3.64374 18.309 -5.31837 19.3781 13.5281 -5.81622 -3.05465 21.2394 -6.39796 -5.22964 8.07379 19.8741 21.7732 22.2574 -6.40062 -6.348 -5.80916 -4.08093 -6.22276 -5.77185 -6.37541 -5.79216 -6.34377 -5.94126 -6.34758 -6.38271 -5.75014 -6.38519 -5.68432
internal_weight=393.319 1.5519 0.588653 0.963251 0.550676 0.132922 0.928725 0.163994 0.417754 391.767 0.890748 0.0690502 0.0932178 0.383229 0.334894 390.876 20.6874 1.00123 0.193341 0.807888 0.157089 19.6862 0.243402 0.773362 0.107028 0.821698 19.4428 0.0759552 19.3669 0.0690502
internal_count=227845 899 341 558 319 77 538 95 242 226946 516 40 54 222 194 226430 11984 580 112 468 91 11404 141 448 62 476 11263 44 11219 40
is_linear=0
shrinkage=1


end of trees

feature_importances:
Time=4
V4=3
V17=3
V7=2
V10=2
V14=2
V26=2
V28=2
V1=1
V3=1
V11=1
V12=1
V19=1
V21=1
V22=1
V23=1
V25=1
Amount_log=1

parameters:
[boosting: gbdt]
[objective: binary]
[metric: auc]
[tree_learner: serial]
[device_type: cpu]
[data_sample_strategy: bagging]
[data: ]
[valid: ]
[num_iterations: 1]
[learning_rate: 0.05]
[num_leaves: 31]
[num_threads: 0]
[seed: 42]
[deterministic: 0]
[force_col_wise: 0]
[force_row_wise: 0]
[histogram_pool_size: -1]
[max_depth: -1]
[min_data_in_leaf: 20]
[min_sum_hessian_in_leaf: 0.001]
[bagging_fraction: 1]
[pos_bagging_fraction: 1]
[neg_bagging_fraction: 1]
[bagging_freq: 0]
[bagging_seed: 400]
[bagging_by_query: 0]
[feature_fraction: 1]
[feature_fraction_bynode: 1]
[feature_fraction_seed: 30056]
[extra_trees: 0]
[extra_seed: 12879]
[early_stopping_round: 0]
[early_stopping_min_delta: 0]
[first_metric_only: 0]
[max_delta_step: 0]
[lambda_l1: 0]
[lambda_l2: 0]
[linear_lambda: 0]
[min_gain_to_split: 0]
[drop_rate: 0.1]
[max_drop: 50]
[skip_drop: 0.5]
[xgboost_dart_mode: 0]
[uniform_drop: 0]
[drop_seed: 17869]
[top_rate: 0.2]
[other_rate: 0.1]
[min_data_per_group: 100]
[max_cat_threshold: 32]
[cat_l2: 10]
[cat_smooth: 10]
[max_cat_to_onehot: 4]
[top_k: 20]
[monotone_constraints: ]
[monotone_constraints_method: basic]
[monotone_penalty: 0]
[feature_contri: ]
[forcedsplits_filename: ]
[refit_decay_rate: 0.9]
[cegb_tradeoff: 1]
[cegb_penalty_split: 0]
[cegb_penalty_feature_lazy: ]
[cegb_penalty_feature_coupled: ]
[path_smooth: 0]
[interaction_constraints: ]
[verbosity: -1]
[saved_feature_importance_type: 0]
[use_quantized_grad: 0]
[num_grad_quant_bins: 4]
[quant_train_renew_leaf: 0]
[stochastic_rounding: 1]
[linear_tree: 0]
[max_bin: 255]
[max_bin_by_feature: ]
[min_data_in_bin: 3]
[bin_construct_sample_cnt: 200000]
[data_random_seed: 175]
[is_enable_sparse: 1]
[enable_bundle: 1]
[use_missing: 1]
[zero_as_missing: 0]
[feature_pre_filter: 1]
[pre_partition: 0]
[two_round: 0]
[header: 0]
[label_column: ]
[weight_column: ]
[group_column: ]
[ignore_column: ]
[categorical_feature: ]
[forcedbins_filename: ]
[precise_float_parser: 0]
[parser_config_file: ]
[objective_seed: 16083]
[num_class: 1]
[is_unbalance: 0]
[scale_pos_weight: 1]
[sigmoid: 1]
[boost_from_average: 1]
[reg_sqrt: 0]
[alpha: 0.9]
[fair_c: 1]
[poisson_max_delta_step: 0.7]
[tweedie_variance_power: 1.5]
[lambdarank_truncation_level: 30]
[lambdarank_norm: 1]
[label_gain: ]
[lambdarank_position_bias_regularization: 0]
[eval_at: ]
[multi_error_top_k: 1]
[auc_mu_weights: ]
[num_machines: 1]
[local_listen_port: 12400]
[time_out: 120]
[machine_list_filename: ]
[machines: ]
[gpu_platform_id: -1]
[gpu_device_id: -1]
[gpu_use_dp: 0]
[num_gpu: 1]

end of parameters

pandas_categorical:[]
